\data\
ngram 1=7
ngram 2=7

\1-grams:
-1.6094 jean	 -0.4543
-2.3026 <UNK>	-0.5879
-100 <s>	 -0.7054
-2.3026 </s>	 0.0000
-1.6094 wood	 -0.5879
-1.6094 cindy	-0.5879
-1.6094 pittsburgh		-0.5879


\2-grams:
-0.5879 <UNK> wood
-0.5879 <s> <UNK>
-0.5879 wood pittsburgh
-0.5879 cindy jean
-0.5879 pittsburgh cindy
-1.2809 jean </s>
-1.2809 jean wood

\end\
